digraph Tree {
node [shape=box, style="filled, rounded", color="black", fontname=helvetica] ;
edge [fontname=helvetica] ;
0 [label="yr_built <= 2002.5\ngini = 0.49\nsamples = 257\nvalue = [147, 110]\nclass = False", fillcolor="#f8dfcd"] ;
1 [label="bedrooms <= 3.5\ngini = 0.5\nsamples = 222\nvalue = [114, 108]\nclass = False", fillcolor="#fef8f5"] ;
0 -> 1 [labeldistance=2.5, labelangle=45, headlabel="True"] ;
2 [label="bedrooms <= 2.5\ngini = 0.487\nsamples = 155\nvalue = [65, 90]\nclass = True", fillcolor="#c8e4f8"] ;
1 -> 2 ;
3 [label="bathrooms <= 2.125\ngini = 0.395\nsamples = 48\nvalue = [13, 35]\nclass = True", fillcolor="#83c1ef"] ;
2 -> 3 ;
4 [label="yr_built <= 1921.5\ngini = 0.346\nsamples = 45\nvalue = [10, 35]\nclass = True", fillcolor="#72b9ec"] ;
3 -> 4 ;
5 [label="gini = 0.0\nsamples = 6\nvalue = [0, 6]\nclass = True", fillcolor="#399de5"] ;
4 -> 5 ;
6 [label="yr_built <= 1934.5\ngini = 0.381\nsamples = 39\nvalue = [10, 29]\nclass = True", fillcolor="#7dbfee"] ;
4 -> 6 ;
7 [label="condition <= 3.5\ngini = 0.473\nsamples = 13\nvalue = [5, 8]\nclass = True", fillcolor="#b5daf5"] ;
6 -> 7 ;
8 [label="yr_built <= 1926.5\ngini = 0.49\nsamples = 7\nvalue = [4, 3]\nclass = False", fillcolor="#f8e0ce"] ;
7 -> 8 ;
9 [label="grade <= 5.5\ngini = 0.48\nsamples = 5\nvalue = [2, 3]\nclass = True", fillcolor="#bddef6"] ;
8 -> 9 ;
10 [label="gini = 0.0\nsamples = 1\nvalue = [0, 1]\nclass = True", fillcolor="#399de5"] ;
9 -> 10 ;
11 [label="yr_built <= 1923.5\ngini = 0.5\nsamples = 4\nvalue = [2, 2]\nclass = False", fillcolor="#ffffff"] ;
9 -> 11 ;
12 [label="gini = 0.5\nsamples = 2\nvalue = [1, 1]\nclass = False", fillcolor="#ffffff"] ;
11 -> 12 ;
13 [label="gini = 0.5\nsamples = 2\nvalue = [1, 1]\nclass = False", fillcolor="#ffffff"] ;
11 -> 13 ;
14 [label="gini = 0.0\nsamples = 2\nvalue = [2, 0]\nclass = False", fillcolor="#e58139"] ;
8 -> 14 ;
15 [label="yr_built <= 1931.5\ngini = 0.278\nsamples = 6\nvalue = [1, 5]\nclass = True", fillcolor="#61b1ea"] ;
7 -> 15 ;
16 [label="gini = 0.0\nsamples = 4\nvalue = [0, 4]\nclass = True", fillcolor="#399de5"] ;
15 -> 16 ;
17 [label="bathrooms <= 1.5\ngini = 0.5\nsamples = 2\nvalue = [1, 1]\nclass = False", fillcolor="#ffffff"] ;
15 -> 17 ;
18 [label="gini = 0.0\nsamples = 1\nvalue = [1, 0]\nclass = False", fillcolor="#e58139"] ;
17 -> 18 ;
19 [label="gini = 0.0\nsamples = 1\nvalue = [0, 1]\nclass = True", fillcolor="#399de5"] ;
17 -> 19 ;
20 [label="yr_built <= 1939.0\ngini = 0.311\nsamples = 26\nvalue = [5, 21]\nclass = True", fillcolor="#68b4eb"] ;
6 -> 20 ;
21 [label="gini = 0.0\nsamples = 4\nvalue = [0, 4]\nclass = True", fillcolor="#399de5"] ;
20 -> 21 ;
22 [label="yr_built <= 1941.0\ngini = 0.351\nsamples = 22\nvalue = [5, 17]\nclass = True", fillcolor="#73baed"] ;
20 -> 22 ;
23 [label="gini = 0.0\nsamples = 1\nvalue = [1, 0]\nclass = False", fillcolor="#e58139"] ;
22 -> 23 ;
24 [label="bathrooms <= 1.25\ngini = 0.308\nsamples = 21\nvalue = [4, 17]\nclass = True", fillcolor="#68b4eb"] ;
22 -> 24 ;
25 [label="yr_built <= 1966.5\ngini = 0.375\nsamples = 16\nvalue = [4, 12]\nclass = True", fillcolor="#7bbeee"] ;
24 -> 25 ;
26 [label="yr_built <= 1950.5\ngini = 0.26\nsamples = 13\nvalue = [2, 11]\nclass = True", fillcolor="#5dafea"] ;
25 -> 26 ;
27 [label="yr_built <= 1945.0\ngini = 0.444\nsamples = 6\nvalue = [2, 4]\nclass = True", fillcolor="#9ccef2"] ;
26 -> 27 ;
28 [label="gini = 0.0\nsamples = 2\nvalue = [0, 2]\nclass = True", fillcolor="#399de5"] ;
27 -> 28 ;
29 [label="yr_built <= 1947.5\ngini = 0.5\nsamples = 4\nvalue = [2, 2]\nclass = False", fillcolor="#ffffff"] ;
27 -> 29 ;
30 [label="gini = 0.0\nsamples = 1\nvalue = [1, 0]\nclass = False", fillcolor="#e58139"] ;
29 -> 30 ;
31 [label="yr_built <= 1949.0\ngini = 0.444\nsamples = 3\nvalue = [1, 2]\nclass = True", fillcolor="#9ccef2"] ;
29 -> 31 ;
32 [label="gini = 0.0\nsamples = 1\nvalue = [0, 1]\nclass = True", fillcolor="#399de5"] ;
31 -> 32 ;
33 [label="gini = 0.5\nsamples = 2\nvalue = [1, 1]\nclass = False", fillcolor="#ffffff"] ;
31 -> 33 ;
34 [label="gini = 0.0\nsamples = 7\nvalue = [0, 7]\nclass = True", fillcolor="#399de5"] ;
26 -> 34 ;
35 [label="yr_built <= 1974.5\ngini = 0.444\nsamples = 3\nvalue = [2, 1]\nclass = False", fillcolor="#f2c09c"] ;
25 -> 35 ;
36 [label="gini = 0.5\nsamples = 2\nvalue = [1, 1]\nclass = False", fillcolor="#ffffff"] ;
35 -> 36 ;
37 [label="gini = 0.0\nsamples = 1\nvalue = [1, 0]\nclass = False", fillcolor="#e58139"] ;
35 -> 37 ;
38 [label="gini = 0.0\nsamples = 5\nvalue = [0, 5]\nclass = True", fillcolor="#399de5"] ;
24 -> 38 ;
39 [label="gini = 0.0\nsamples = 3\nvalue = [3, 0]\nclass = False", fillcolor="#e58139"] ;
3 -> 39 ;
40 [label="yr_built <= 1966.5\ngini = 0.5\nsamples = 107\nvalue = [52, 55]\nclass = True", fillcolor="#f4fafe"] ;
2 -> 40 ;
41 [label="floors <= 1.25\ngini = 0.473\nsamples = 47\nvalue = [29, 18]\nclass = False", fillcolor="#f5cfb4"] ;
40 -> 41 ;
42 [label="yr_built <= 1930.0\ngini = 0.495\nsamples = 40\nvalue = [22, 18]\nclass = False", fillcolor="#fae8db"] ;
41 -> 42 ;
43 [label="gini = 0.0\nsamples = 3\nvalue = [0, 3]\nclass = True", fillcolor="#399de5"] ;
42 -> 43 ;
44 [label="condition <= 3.5\ngini = 0.482\nsamples = 37\nvalue = [22, 15]\nclass = False", fillcolor="#f7d7c0"] ;
42 -> 44 ;
45 [label="grade <= 6.5\ngini = 0.388\nsamples = 19\nvalue = [14, 5]\nclass = False", fillcolor="#eeae80"] ;
44 -> 45 ;
46 [label="bathrooms <= 0.875\ngini = 0.444\nsamples = 3\nvalue = [1, 2]\nclass = True", fillcolor="#9ccef2"] ;
45 -> 46 ;
47 [label="gini = 0.0\nsamples = 1\nvalue = [1, 0]\nclass = False", fillcolor="#e58139"] ;
46 -> 47 ;
48 [label="gini = 0.0\nsamples = 2\nvalue = [0, 2]\nclass = True", fillcolor="#399de5"] ;
46 -> 48 ;
49 [label="view <= 0.5\ngini = 0.305\nsamples = 16\nvalue = [13, 3]\nclass = False", fillcolor="#eb9e67"] ;
45 -> 49 ;
50 [label="yr_built <= 1949.0\ngini = 0.231\nsamples = 15\nvalue = [13, 2]\nclass = False", fillcolor="#e99457"] ;
49 -> 50 ;
51 [label="gini = 0.0\nsamples = 1\nvalue = [0, 1]\nclass = True", fillcolor="#399de5"] ;
50 -> 51 ;
52 [label="bathrooms <= 1.25\ngini = 0.133\nsamples = 14\nvalue = [13, 1]\nclass = False", fillcolor="#e78b48"] ;
50 -> 52 ;
53 [label="yr_built <= 1960.5\ngini = 0.32\nsamples = 5\nvalue = [4, 1]\nclass = False", fillcolor="#eca06a"] ;
52 -> 53 ;
54 [label="gini = 0.0\nsamples = 3\nvalue = [3, 0]\nclass = False", fillcolor="#e58139"] ;
53 -> 54 ;
55 [label="yr_built <= 1963.5\ngini = 0.5\nsamples = 2\nvalue = [1, 1]\nclass = False", fillcolor="#ffffff"] ;
53 -> 55 ;
56 [label="gini = 0.0\nsamples = 1\nvalue = [0, 1]\nclass = True", fillcolor="#399de5"] ;
55 -> 56 ;
57 [label="gini = 0.0\nsamples = 1\nvalue = [1, 0]\nclass = False", fillcolor="#e58139"] ;
55 -> 57 ;
58 [label="gini = 0.0\nsamples = 9\nvalue = [9, 0]\nclass = False", fillcolor="#e58139"] ;
52 -> 58 ;
59 [label="gini = 0.0\nsamples = 1\nvalue = [0, 1]\nclass = True", fillcolor="#399de5"] ;
49 -> 59 ;
60 [label="yr_built <= 1961.5\ngini = 0.494\nsamples = 18\nvalue = [8, 10]\nclass = True", fillcolor="#d7ebfa"] ;
44 -> 60 ;
61 [label="yr_built <= 1942.5\ngini = 0.375\nsamples = 8\nvalue = [2, 6]\nclass = True", fillcolor="#7bbeee"] ;
60 -> 61 ;
62 [label="gini = 0.0\nsamples = 1\nvalue = [1, 0]\nclass = False", fillcolor="#e58139"] ;
61 -> 62 ;
63 [label="bathrooms <= 1.25\ngini = 0.245\nsamples = 7\nvalue = [1, 6]\nclass = True", fillcolor="#5aade9"] ;
61 -> 63 ;
64 [label="grade <= 6.5\ngini = 0.444\nsamples = 3\nvalue = [1, 2]\nclass = True", fillcolor="#9ccef2"] ;
63 -> 64 ;
65 [label="gini = 0.0\nsamples = 1\nvalue = [0, 1]\nclass = True", fillcolor="#399de5"] ;
64 -> 65 ;
66 [label="gini = 0.5\nsamples = 2\nvalue = [1, 1]\nclass = False", fillcolor="#ffffff"] ;
64 -> 66 ;
67 [label="gini = 0.0\nsamples = 4\nvalue = [0, 4]\nclass = True", fillcolor="#399de5"] ;
63 -> 67 ;
68 [label="yr_built <= 1962.5\ngini = 0.48\nsamples = 10\nvalue = [6, 4]\nclass = False", fillcolor="#f6d5bd"] ;
60 -> 68 ;
69 [label="gini = 0.0\nsamples = 2\nvalue = [2, 0]\nclass = False", fillcolor="#e58139"] ;
68 -> 69 ;
70 [label="grade <= 6.5\ngini = 0.5\nsamples = 8\nvalue = [4, 4]\nclass = False", fillcolor="#ffffff"] ;
68 -> 70 ;
71 [label="gini = 0.0\nsamples = 2\nvalue = [2, 0]\nclass = False", fillcolor="#e58139"] ;
70 -> 71 ;
72 [label="bathrooms <= 1.875\ngini = 0.444\nsamples = 6\nvalue = [2, 4]\nclass = True", fillcolor="#9ccef2"] ;
70 -> 72 ;
73 [label="bathrooms <= 1.625\ngini = 0.48\nsamples = 5\nvalue = [2, 3]\nclass = True", fillcolor="#bddef6"] ;
72 -> 73 ;
74 [label="yr_built <= 1963.5\ngini = 0.375\nsamples = 4\nvalue = [1, 3]\nclass = True", fillcolor="#7bbeee"] ;
73 -> 74 ;
75 [label="gini = 0.444\nsamples = 3\nvalue = [1, 2]\nclass = True", fillcolor="#9ccef2"] ;
74 -> 75 ;
76 [label="gini = 0.0\nsamples = 1\nvalue = [0, 1]\nclass = True", fillcolor="#399de5"] ;
74 -> 76 ;
77 [label="gini = 0.0\nsamples = 1\nvalue = [1, 0]\nclass = False", fillcolor="#e58139"] ;
73 -> 77 ;
78 [label="gini = 0.0\nsamples = 1\nvalue = [0, 1]\nclass = True", fillcolor="#399de5"] ;
72 -> 78 ;
79 [label="gini = 0.0\nsamples = 7\nvalue = [7, 0]\nclass = False", fillcolor="#e58139"] ;
41 -> 79 ;
80 [label="yr_built <= 1969.5\ngini = 0.473\nsamples = 60\nvalue = [23, 37]\nclass = True", fillcolor="#b4daf5"] ;
40 -> 80 ;
81 [label="bathrooms <= 2.0\ngini = 0.245\nsamples = 14\nvalue = [2, 12]\nclass = True", fillcolor="#5aade9"] ;
80 -> 81 ;
82 [label="bathrooms <= 1.25\ngini = 0.32\nsamples = 10\nvalue = [2, 8]\nclass = True", fillcolor="#6ab6ec"] ;
81 -> 82 ;
83 [label="gini = 0.0\nsamples = 3\nvalue = [0, 3]\nclass = True", fillcolor="#399de5"] ;
82 -> 83 ;
84 [label="condition <= 3.5\ngini = 0.408\nsamples = 7\nvalue = [2, 5]\nclass = True", fillcolor="#88c4ef"] ;
82 -> 84 ;
85 [label="gini = 0.5\nsamples = 2\nvalue = [1, 1]\nclass = False", fillcolor="#ffffff"] ;
84 -> 85 ;
86 [label="bathrooms <= 1.625\ngini = 0.32\nsamples = 5\nvalue = [1, 4]\nclass = True", fillcolor="#6ab6ec"] ;
84 -> 86 ;
87 [label="gini = 0.0\nsamples = 1\nvalue = [0, 1]\nclass = True", fillcolor="#399de5"] ;
86 -> 87 ;
88 [label="yr_built <= 1968.5\ngini = 0.375\nsamples = 4\nvalue = [1, 3]\nclass = True", fillcolor="#7bbeee"] ;
86 -> 88 ;
89 [label="gini = 0.444\nsamples = 3\nvalue = [1, 2]\nclass = True", fillcolor="#9ccef2"] ;
88 -> 89 ;
90 [label="gini = 0.0\nsamples = 1\nvalue = [0, 1]\nclass = True", fillcolor="#399de5"] ;
88 -> 90 ;
91 [label="gini = 0.0\nsamples = 4\nvalue = [0, 4]\nclass = True", fillcolor="#399de5"] ;
81 -> 91 ;
92 [label="yr_built <= 1984.0\ngini = 0.496\nsamples = 46\nvalue = [21, 25]\nclass = True", fillcolor="#dfeffb"] ;
80 -> 92 ;
93 [label="bathrooms <= 1.875\ngini = 0.475\nsamples = 18\nvalue = [11, 7]\nclass = False", fillcolor="#f6d1b7"] ;
92 -> 93 ;
94 [label="yr_built <= 1982.0\ngini = 0.444\nsamples = 6\nvalue = [2, 4]\nclass = True", fillcolor="#9ccef2"] ;
93 -> 94 ;
95 [label="bathrooms <= 1.375\ngini = 0.32\nsamples = 5\nvalue = [1, 4]\nclass = True", fillcolor="#6ab6ec"] ;
94 -> 95 ;
96 [label="gini = 0.0\nsamples = 1\nvalue = [1, 0]\nclass = False", fillcolor="#e58139"] ;
95 -> 96 ;
97 [label="gini = 0.0\nsamples = 4\nvalue = [0, 4]\nclass = True", fillcolor="#399de5"] ;
95 -> 97 ;
98 [label="gini = 0.0\nsamples = 1\nvalue = [1, 0]\nclass = False", fillcolor="#e58139"] ;
94 -> 98 ;
99 [label="grade <= 7.5\ngini = 0.375\nsamples = 12\nvalue = [9, 3]\nclass = False", fillcolor="#eeab7b"] ;
93 -> 99 ;
100 [label="floors <= 1.5\ngini = 0.49\nsamples = 7\nvalue = [4, 3]\nclass = False", fillcolor="#f8e0ce"] ;
99 -> 100 ;
101 [label="yr_built <= 1978.5\ngini = 0.444\nsamples = 6\nvalue = [4, 2]\nclass = False", fillcolor="#f2c09c"] ;
100 -> 101 ;
102 [label="bathrooms <= 2.125\ngini = 0.444\nsamples = 3\nvalue = [1, 2]\nclass = True", fillcolor="#9ccef2"] ;
101 -> 102 ;
103 [label="gini = 0.0\nsamples = 1\nvalue = [1, 0]\nclass = False", fillcolor="#e58139"] ;
102 -> 103 ;
104 [label="gini = 0.0\nsamples = 2\nvalue = [0, 2]\nclass = True", fillcolor="#399de5"] ;
102 -> 104 ;
105 [label="gini = 0.0\nsamples = 3\nvalue = [3, 0]\nclass = False", fillcolor="#e58139"] ;
101 -> 105 ;
106 [label="gini = 0.0\nsamples = 1\nvalue = [0, 1]\nclass = True", fillcolor="#399de5"] ;
100 -> 106 ;
107 [label="gini = 0.0\nsamples = 5\nvalue = [5, 0]\nclass = False", fillcolor="#e58139"] ;
99 -> 107 ;
108 [label="yr_built <= 1994.5\ngini = 0.459\nsamples = 28\nvalue = [10, 18]\nclass = True", fillcolor="#a7d3f3"] ;
92 -> 108 ;
109 [label="yr_built <= 1985.5\ngini = 0.476\nsamples = 23\nvalue = [9, 14]\nclass = True", fillcolor="#b8dcf6"] ;
108 -> 109 ;
110 [label="gini = 0.0\nsamples = 1\nvalue = [0, 1]\nclass = True", fillcolor="#399de5"] ;
109 -> 110 ;
111 [label="floors <= 1.25\ngini = 0.483\nsamples = 22\nvalue = [9, 13]\nclass = True", fillcolor="#c2e1f7"] ;
109 -> 111 ;
112 [label="condition <= 3.5\ngini = 0.42\nsamples = 10\nvalue = [3, 7]\nclass = True", fillcolor="#8ec7f0"] ;
111 -> 112 ;
113 [label="yr_built <= 1988.5\ngini = 0.49\nsamples = 7\nvalue = [3, 4]\nclass = True", fillcolor="#cee6f8"] ;
112 -> 113 ;
114 [label="yr_built <= 1986.5\ngini = 0.48\nsamples = 5\nvalue = [3, 2]\nclass = False", fillcolor="#f6d5bd"] ;
113 -> 114 ;
115 [label="bathrooms <= 1.875\ngini = 0.444\nsamples = 3\nvalue = [1, 2]\nclass = True", fillcolor="#9ccef2"] ;
114 -> 115 ;
116 [label="gini = 0.0\nsamples = 1\nvalue = [0, 1]\nclass = True", fillcolor="#399de5"] ;
115 -> 116 ;
117 [label="bathrooms <= 2.25\ngini = 0.5\nsamples = 2\nvalue = [1, 1]\nclass = False", fillcolor="#ffffff"] ;
115 -> 117 ;
118 [label="gini = 0.0\nsamples = 1\nvalue = [1, 0]\nclass = False", fillcolor="#e58139"] ;
117 -> 118 ;
119 [label="gini = 0.0\nsamples = 1\nvalue = [0, 1]\nclass = True", fillcolor="#399de5"] ;
117 -> 119 ;
120 [label="gini = 0.0\nsamples = 2\nvalue = [2, 0]\nclass = False", fillcolor="#e58139"] ;
114 -> 120 ;
121 [label="gini = 0.0\nsamples = 2\nvalue = [0, 2]\nclass = True", fillcolor="#399de5"] ;
113 -> 121 ;
122 [label="gini = 0.0\nsamples = 3\nvalue = [0, 3]\nclass = True", fillcolor="#399de5"] ;
112 -> 122 ;
123 [label="yr_built <= 1990.5\ngini = 0.5\nsamples = 12\nvalue = [6, 6]\nclass = False", fillcolor="#ffffff"] ;
111 -> 123 ;
124 [label="grade <= 7.5\ngini = 0.375\nsamples = 4\nvalue = [3, 1]\nclass = False", fillcolor="#eeab7b"] ;
123 -> 124 ;
125 [label="floors <= 1.75\ngini = 0.5\nsamples = 2\nvalue = [1, 1]\nclass = False", fillcolor="#ffffff"] ;
124 -> 125 ;
126 [label="gini = 0.0\nsamples = 1\nvalue = [1, 0]\nclass = False", fillcolor="#e58139"] ;
125 -> 126 ;
127 [label="gini = 0.0\nsamples = 1\nvalue = [0, 1]\nclass = True", fillcolor="#399de5"] ;
125 -> 127 ;
128 [label="gini = 0.0\nsamples = 2\nvalue = [2, 0]\nclass = False", fillcolor="#e58139"] ;
124 -> 128 ;
129 [label="bathrooms <= 2.25\ngini = 0.469\nsamples = 8\nvalue = [3, 5]\nclass = True", fillcolor="#b0d8f5"] ;
123 -> 129 ;
130 [label="gini = 0.0\nsamples = 1\nvalue = [0, 1]\nclass = True", fillcolor="#399de5"] ;
129 -> 130 ;
131 [label="grade <= 7.5\ngini = 0.49\nsamples = 7\nvalue = [3, 4]\nclass = True", fillcolor="#cee6f8"] ;
129 -> 131 ;
132 [label="yr_built <= 1993.0\ngini = 0.444\nsamples = 3\nvalue = [2, 1]\nclass = False", fillcolor="#f2c09c"] ;
131 -> 132 ;
133 [label="gini = 0.0\nsamples = 1\nvalue = [0, 1]\nclass = True", fillcolor="#399de5"] ;
132 -> 133 ;
134 [label="gini = 0.0\nsamples = 2\nvalue = [2, 0]\nclass = False", fillcolor="#e58139"] ;
132 -> 134 ;
135 [label="gini = 0.375\nsamples = 4\nvalue = [1, 3]\nclass = True", fillcolor="#7bbeee"] ;
131 -> 135 ;
136 [label="yr_built <= 1999.5\ngini = 0.32\nsamples = 5\nvalue = [1, 4]\nclass = True", fillcolor="#6ab6ec"] ;
108 -> 136 ;
137 [label="gini = 0.0\nsamples = 3\nvalue = [0, 3]\nclass = True", fillcolor="#399de5"] ;
136 -> 137 ;
138 [label="gini = 0.5\nsamples = 2\nvalue = [1, 1]\nclass = False", fillcolor="#ffffff"] ;
136 -> 138 ;
139 [label="bathrooms <= 1.625\ngini = 0.393\nsamples = 67\nvalue = [49, 18]\nclass = False", fillcolor="#efaf82"] ;
1 -> 139 ;
140 [label="grade <= 5.5\ngini = 0.498\nsamples = 17\nvalue = [8, 9]\nclass = True", fillcolor="#e9f4fc"] ;
139 -> 140 ;
141 [label="gini = 0.0\nsamples = 3\nvalue = [3, 0]\nclass = False", fillcolor="#e58139"] ;
140 -> 141 ;
142 [label="bathrooms <= 1.25\ngini = 0.459\nsamples = 14\nvalue = [5, 9]\nclass = True", fillcolor="#a7d3f3"] ;
140 -> 142 ;
143 [label="condition <= 3.5\ngini = 0.496\nsamples = 11\nvalue = [5, 6]\nclass = True", fillcolor="#deeffb"] ;
142 -> 143 ;
144 [label="yr_built <= 1924.5\ngini = 0.444\nsamples = 6\nvalue = [4, 2]\nclass = False", fillcolor="#f2c09c"] ;
143 -> 144 ;
145 [label="gini = 0.0\nsamples = 1\nvalue = [1, 0]\nclass = False", fillcolor="#e58139"] ;
144 -> 145 ;
146 [label="yr_built <= 1940.5\ngini = 0.48\nsamples = 5\nvalue = [3, 2]\nclass = False", fillcolor="#f6d5bd"] ;
144 -> 146 ;
147 [label="gini = 0.0\nsamples = 1\nvalue = [0, 1]\nclass = True", fillcolor="#399de5"] ;
146 -> 147 ;
148 [label="yr_built <= 1961.0\ngini = 0.375\nsamples = 4\nvalue = [3, 1]\nclass = False", fillcolor="#eeab7b"] ;
146 -> 148 ;
149 [label="gini = 0.0\nsamples = 1\nvalue = [1, 0]\nclass = False", fillcolor="#e58139"] ;
148 -> 149 ;
150 [label="gini = 0.444\nsamples = 3\nvalue = [2, 1]\nclass = False", fillcolor="#f2c09c"] ;
148 -> 150 ;
151 [label="grade <= 6.5\ngini = 0.32\nsamples = 5\nvalue = [1, 4]\nclass = True", fillcolor="#6ab6ec"] ;
143 -> 151 ;
152 [label="gini = 0.0\nsamples = 3\nvalue = [0, 3]\nclass = True", fillcolor="#399de5"] ;
151 -> 152 ;
153 [label="condition <= 4.5\ngini = 0.5\nsamples = 2\nvalue = [1, 1]\nclass = False", fillcolor="#ffffff"] ;
151 -> 153 ;
154 [label="gini = 0.0\nsamples = 1\nvalue = [1, 0]\nclass = False", fillcolor="#e58139"] ;
153 -> 154 ;
155 [label="gini = 0.0\nsamples = 1\nvalue = [0, 1]\nclass = True", fillcolor="#399de5"] ;
153 -> 155 ;
156 [label="gini = 0.0\nsamples = 3\nvalue = [0, 3]\nclass = True", fillcolor="#399de5"] ;
142 -> 156 ;
157 [label="condition <= 4.5\ngini = 0.295\nsamples = 50\nvalue = [41, 9]\nclass = False", fillcolor="#eb9d64"] ;
139 -> 157 ;
158 [label="bathrooms <= 3.875\ngini = 0.254\nsamples = 47\nvalue = [40, 7]\nclass = False", fillcolor="#ea975c"] ;
157 -> 158 ;
159 [label="yr_built <= 2001.0\ngini = 0.227\nsamples = 46\nvalue = [40, 6]\nclass = False", fillcolor="#e99457"] ;
158 -> 159 ;
160 [label="yr_built <= 1986.5\ngini = 0.198\nsamples = 45\nvalue = [40, 5]\nclass = False", fillcolor="#e89152"] ;
159 -> 160 ;
161 [label="bathrooms <= 2.125\ngini = 0.111\nsamples = 34\nvalue = [32, 2]\nclass = False", fillcolor="#e78945"] ;
160 -> 161 ;
162 [label="condition <= 3.5\ngini = 0.245\nsamples = 14\nvalue = [12, 2]\nclass = False", fillcolor="#e9965a"] ;
161 -> 162 ;
163 [label="gini = 0.0\nsamples = 6\nvalue = [6, 0]\nclass = False", fillcolor="#e58139"] ;
162 -> 163 ;
164 [label="grade <= 7.5\ngini = 0.375\nsamples = 8\nvalue = [6, 2]\nclass = False", fillcolor="#eeab7b"] ;
162 -> 164 ;
165 [label="yr_built <= 1958.0\ngini = 0.245\nsamples = 7\nvalue = [6, 1]\nclass = False", fillcolor="#e9965a"] ;
164 -> 165 ;
166 [label="floors <= 1.5\ngini = 0.5\nsamples = 2\nvalue = [1, 1]\nclass = False", fillcolor="#ffffff"] ;
165 -> 166 ;
167 [label="gini = 0.0\nsamples = 1\nvalue = [0, 1]\nclass = True", fillcolor="#399de5"] ;
166 -> 167 ;
168 [label="gini = 0.0\nsamples = 1\nvalue = [1, 0]\nclass = False", fillcolor="#e58139"] ;
166 -> 168 ;
169 [label="gini = 0.0\nsamples = 5\nvalue = [5, 0]\nclass = False", fillcolor="#e58139"] ;
165 -> 169 ;
170 [label="gini = 0.0\nsamples = 1\nvalue = [0, 1]\nclass = True", fillcolor="#399de5"] ;
164 -> 170 ;
171 [label="gini = 0.0\nsamples = 20\nvalue = [20, 0]\nclass = False", fillcolor="#e58139"] ;
161 -> 171 ;
172 [label="yr_built <= 1997.0\ngini = 0.397\nsamples = 11\nvalue = [8, 3]\nclass = False", fillcolor="#efb083"] ;
160 -> 172 ;
173 [label="bedrooms <= 4.5\ngini = 0.469\nsamples = 8\nvalue = [5, 3]\nclass = False", fillcolor="#f5cdb0"] ;
172 -> 173 ;
174 [label="yr_built <= 1991.5\ngini = 0.48\nsamples = 5\nvalue = [2, 3]\nclass = True", fillcolor="#bddef6"] ;
173 -> 174 ;
175 [label="gini = 0.0\nsamples = 1\nvalue = [0, 1]\nclass = True", fillcolor="#399de5"] ;
174 -> 175 ;
176 [label="yr_built <= 1994.0\ngini = 0.5\nsamples = 4\nvalue = [2, 2]\nclass = False", fillcolor="#ffffff"] ;
174 -> 176 ;
177 [label="gini = 0.0\nsamples = 1\nvalue = [1, 0]\nclass = False", fillcolor="#e58139"] ;
176 -> 177 ;
178 [label="gini = 0.444\nsamples = 3\nvalue = [1, 2]\nclass = True", fillcolor="#9ccef2"] ;
176 -> 178 ;
179 [label="gini = 0.0\nsamples = 3\nvalue = [3, 0]\nclass = False", fillcolor="#e58139"] ;
173 -> 179 ;
180 [label="gini = 0.0\nsamples = 3\nvalue = [3, 0]\nclass = False", fillcolor="#e58139"] ;
172 -> 180 ;
181 [label="gini = 0.0\nsamples = 1\nvalue = [0, 1]\nclass = True", fillcolor="#399de5"] ;
159 -> 181 ;
182 [label="gini = 0.0\nsamples = 1\nvalue = [0, 1]\nclass = True", fillcolor="#399de5"] ;
158 -> 182 ;
183 [label="floors <= 1.5\ngini = 0.444\nsamples = 3\nvalue = [1, 2]\nclass = True", fillcolor="#9ccef2"] ;
157 -> 183 ;
184 [label="gini = 0.0\nsamples = 2\nvalue = [0, 2]\nclass = True", fillcolor="#399de5"] ;
183 -> 184 ;
185 [label="gini = 0.0\nsamples = 1\nvalue = [1, 0]\nclass = False", fillcolor="#e58139"] ;
183 -> 185 ;
186 [label="yr_built <= 2013.5\ngini = 0.108\nsamples = 35\nvalue = [33, 2]\nclass = False", fillcolor="#e78945"] ;
0 -> 186 [labeldistance=2.5, labelangle=-45, headlabel="False"] ;
187 [label="yr_built <= 2005.5\ngini = 0.059\nsamples = 33\nvalue = [32, 1]\nclass = False", fillcolor="#e6853f"] ;
186 -> 187 ;
188 [label="gini = 0.0\nsamples = 15\nvalue = [15, 0]\nclass = False", fillcolor="#e58139"] ;
187 -> 188 ;
189 [label="yr_built <= 2006.5\ngini = 0.105\nsamples = 18\nvalue = [17, 1]\nclass = False", fillcolor="#e78845"] ;
187 -> 189 ;
190 [label="grade <= 8.5\ngini = 0.245\nsamples = 7\nvalue = [6, 1]\nclass = False", fillcolor="#e9965a"] ;
189 -> 190 ;
191 [label="bedrooms <= 2.5\ngini = 0.32\nsamples = 5\nvalue = [4, 1]\nclass = False", fillcolor="#eca06a"] ;
190 -> 191 ;
192 [label="gini = 0.0\nsamples = 1\nvalue = [1, 0]\nclass = False", fillcolor="#e58139"] ;
191 -> 192 ;
193 [label="gini = 0.375\nsamples = 4\nvalue = [3, 1]\nclass = False", fillcolor="#eeab7b"] ;
191 -> 193 ;
194 [label="gini = 0.0\nsamples = 2\nvalue = [2, 0]\nclass = False", fillcolor="#e58139"] ;
190 -> 194 ;
195 [label="gini = 0.0\nsamples = 11\nvalue = [11, 0]\nclass = False", fillcolor="#e58139"] ;
189 -> 195 ;
196 [label="grade <= 8.5\ngini = 0.5\nsamples = 2\nvalue = [1, 1]\nclass = False", fillcolor="#ffffff"] ;
186 -> 196 ;
197 [label="gini = 0.0\nsamples = 1\nvalue = [1, 0]\nclass = False", fillcolor="#e58139"] ;
196 -> 197 ;
198 [label="gini = 0.0\nsamples = 1\nvalue = [0, 1]\nclass = True", fillcolor="#399de5"] ;
196 -> 198 ;
}